#include "nnom.h"

/* Weights, bias and Q format */
#define TENSOR_CONV2D_KERNEL_0 {80, 11, -12, 73, -2, 47, 3, -109, -76, 0, -73, 30, 56, 33, -31, 66, -96, -95, -85, 61, 18, -84, 59, -95, 34, 91, -3, -91, -11, 29, -19, 60, 91, -50, 65, 92, -92, 100, 51, 0, 84, 37, -69, 101, 61, 76, -51, 68, 95, 85, 10, 47, 2, 78, 66, 50, -3, 100, 99, 26, 20, 38, -92, 94, 49, 90, 70, 95, 39, 34, 48, 44, -5, 84, 79, -48, 17, 91, 1, 53, 96, -59, 25, 2, -69, -45, -44, -43, -69, -58, 22, -39, -51, -41, -75, -73, -104, -7, -76, 57, -85, -58, 74, -62, -78, -8, -64, -100, 9, 45, -9, -83, 85, 30, -58, 85, -27, -81, 11, 5, -112, -53, -99, 28, -47, -26, 103, -18, 102, 92, -9, 78, 60, -12, 84, 48, -44, 95, -39, 11, 38, 65, -79, 66, 19, 29, -62, -83, -72, -19, -12, -93, -63, 73, -8, -19, 48, 68, 94, 30, 40, 65, -11, 92, 22, 105, 66, 85, 15, 6, 86, -49, 9, -91, -94, -97, 34, -6, -109, -64, 84, -9, 42, 85, -53, 106, 4, -79, -37, 12, -46, 45, -75, -58, -79, -103, -71, 11, -89, -49, 92, -103, -14, 68, 32, -21, -4, -47, -75, -28, -60, -27, 6, -99, 9, -83, -77, -35, -32, -88, 41, 33, -22, 74, -84, 79, -45, -66, 17, -73, -102, 56, -42, -94, -80, -34, 104, -9, -3, -8, -90, -84, 94, 14, 28, 94, 20, 61, 47, -20, 66, 32, -92, -25, 47, -59, -77, 82, 8, -84, 81, 49, -99, 96, 64, -64, -14, 51, 44, 75}

#define TENSOR_CONV2D_KERNEL_0_DEC_BITS {9}

#define TENSOR_CONV2D_BIAS_0 {70, 69, 66, 24, 60, 71, 71, 75, 65, 73, 61, 67, 66, 7, 61, 53, 29, 71, 46, 54, 71, 22, 60, 64, 59, 67, 50, -22, 62, 58}

#define TENSOR_CONV2D_BIAS_0_DEC_BITS {10}

#define CONV2D_BIAS_LSHIFT {3}

#define CONV2D_OUTPUT_RSHIFT {8}

#define TENSOR_CONV2D_1_KERNEL_0 {79, 28, 36, -71, 65, 33, 39, -30, 38, -38, 35, 85, -25, 34, 58, -6, 70, 43, 63, -19, 37, -37, -67, 24, -22, 35, -31, 39, 46, -24, 47, -14, -9, 13, -44, 76, -50, 32, 91, 94, 28, 13, -52, -3, 87, 76, 24, 57, 53, 16, 35, 52, -22, 23, 16, -2, 66, 47, 11, -23, 15, -9, 85, 48, 67, -3, 24, -23, 60, 3, 89, 22, -5, 29, -52, 8, 8, -46, -8, -51, -65, -42, -30, 19, 17, -10, 4, 72, -79, -4, 53, 84, 45, -72, 46, -22, 21, 74, -44, 18, -13, 77, 64, 25, 60, -1, -31, -2, -19, 60, 36, -18, -75, -44, 30, -16, 0, -39, -37, 85, 84, 36, -43, 24, -56, -3, 36, 20, 56, 3, 50, 58, -39, 75, 28, 91, 53, 69, 27, -6, 70, 75, -19, 61, 5, 31, -17, 5, 37, 20, -52, 6, 87, -6, 22, -6, -13, 38, 9, 89, -2, -47, 70, -3, 1, -50, 31, 0, 36, -41, -2, 23, 11, 22, -14, -33, 82, -12, 32, -64, 67, 94, 28, -76, 38, 1, 1, -35, -26, -82, 54, 61, -40, 9, -6, 40, -15, -12, -38, -33, 47, -28, -56, -87, -63, 41, -54, -63, 24, 61, 78, 27, 3, 37, -54, 36, -15, -21, 12, 80, -17, 76, -61, 68, 22, 83, 5, 36, 51, 34, 71, 58, 14, 19, 37, -48, 76, -41, 74, 19, -80, -39, 55, 91, 24, 28, -41, -55, 0, -1, 52, -6, 6, 43, -70, -3, 48, -7, 49, -1, -59, -37, 77, 90, 13, -16, 54, -7, -15, -17, 72, -18, 8, -52, -40, 24, 74, 53, 23, -45, -3, -29, -58, -39, 13, -49, 15, 80, 45, 65, -6, -57, -34, 45, -59, 7, -41, -13, -7, 68, 25, 39, -29, -22, -61, -92, -74, -19, -22, -23, 29, 35, -84, 91, -90, -19, 79, -89, 1, 90, 72, 9, -15, 38, 65, 19, 41, -95, 76, -29, 2, -12, -88, -10, -5, -41, -29, -7, 13, 27, 18, 7, -69, -43, 20, 85, -4, -31, -32, 52, 67, 72, -30, 0, -87, 41, 15, -17, 32, -5, 90, 69, 39, -76, -1, 55, 14, -50, 25, 27, -29, 69, -21, -7, 82, 0, 56, -1, -22, -26, -18, -41, -13, -55, -28, -15, -73, -29, -50, 36, -23, -8, 10, -31, 13, 4, -84, -9, -79, 79, 27, 56, -67, 62, 27, -71, -27, 12, 4, 51, 9, 71, 23, 28, 47, 17, -61, -84, 78, -11, -29, 46, 19, 15, -29, 26, -27, -34, -26, -19, 55, 34, -78, 61, 0, 45, 8, -86, -87, 60, -5, 44, 8, 76, -41, 36, 40, 20, 78, 77, 66, 49, -72, -61, -69, 89, 16, -3, -26, -22, 6, -13, -21, 10, 40, -1, -10, -29, -80, -28, 81, -35, -93, 17, 0, 65, -4, -88, -46, 19, -8, 55, -14, 19, -34, -24, 19, 27, -46, -11, 28, 66, -36, 3, -63, 26, 69, -66, -45, -6, -32, 0, -9, 46, 85, 80, -55, -35, -47, 14, 73, 8, -1, -81, -89, -20, 2, -52, 18, 22, 66, 55, 12, 86, -3, 0, 77, -25, -59, 92, 53, 23, -13, 82, -35, 14, -10, -17, 52, -25, 28, 22, 47, 30, -3, 65, 16, -12, 63, 47, -31, -36, 32, 1, 50, 66, -83, 56, -27, 23, -47, 45, -11, 49, 67, -78, 59, 30, 49, -8, -23, 54, 41, -14, 54, 56, 74, 52, 41, 21, -27, -59, 59, -70, 30, 12, -29, 23, 17, 18, 91, -73, 45, -60, 4, -25, 57, 2, -51, 22, -1, 34, 29, 62, 82, -10, 73, 80, -23, -46, -64, 13, -20, -61, 15, 14, -28, 37, 62, 0, 15, -53, -19, -21, -66, -60, -68, 47, 47, 69, 3, -7, -19, 85, -1, 54, -2, 2, 49, -60, -53, -62, -13, -46, 60, 55, -54, 82, 82, 17, 14, -22, 25, -47, 32, -54, 18, -20, 59, 34, -30, -25, 23, -17, 14, 23, 40, 71, -18, -55, -15, -64, -44, -90, 42, 45, -5, -19, 50, -83, -27, -7, -38, -70, 20, -18, 40, -42, -5, 5, -3, -26, 42, -35, 46, -14, -17, 1, -10, -75, -72, -64, -5, -89, 50, -25, -3, 4, 4, 16, 18, 20, -31, -45, 35, -1, 11, 50, 16, 86, 18, -34, 86, 17, -7, 70, 75, 8, -16, -93, -28, -8, 20, 13, 8, 27, -5, 85, 22, -31, -43, -76, -19, -8, 81, -23, 23, 31, 18, -36, 43, -12, 3, -73, -29, 55, 76, 66, 27, 23, -18, -28, 17, -55, 15, 59, -43, 44, 68, -59, 78, -44, -47, -60, 12, -34, 40, -5, 29, 33, 40, -18, 7, -39, 12, -2, -14, -22, 71, -21, -83, -9, 31, 3, 75, -25, -71, 0, 83, -46, 14, 18, -64, -76, 30, -50, -27, 64, 21, -22, -64, -19, -3, 50, -44, -58, -21, -4, -77, 74, 44, 28, 79, -6, 24, -1, -31, -28, -80, 25, -15, 85, 19, 34, 75, -7, 81, -59, -40, -59, 3, 66, -35, -35, -30, 15, -39, 21, 34, -66, 20, 23, 18, 24, 11, 68, 25, -21, -36, 5, 70, -36, -1, 14, 15, -53, 91, 60, 57, 52, -19, -31, 8, 11, 14, 45, -3, 90, -23, 45, -34, -81, 66, -24, -36, 4, -18, 80, 2, -62, 43, 49, 54, 39, 57, -30, -29, -6, 72, 29, -18, -57, 15, 30, 71, -34, -71, 6, -21, 6, -19, -50, -24, -30, -90, -16, -11, 24, -33, -6, -70, -11, 0, 37, 58, -50, 73, -24, 10, -73, -17, 89, -43, -4, 18, 7, -11, 0, 8, -9, -43, -82, -54, 10, 50, 76, -30, 39, 50, -40, 82, -36, 16, -52, -40, -20, 66, 13, -4, 70, -56, -58, -5, 63, 75, -19, -3, 1, 64, 21, -2, -56, 0, -24, 71, 24, -38, 35, 63, -28, 40, 15, 59, -37, -22, -82, 17, 89, 30, 67, -13, 7, 56, 20, -36, 19, -8, -62, 58, 77, -17, -71, 30, 82, -85, 18, -30, 39, 21, -9, -79, 41, 9, 40, 55, 21, -17, 36, -34, -90, -19, 71, 19, 15, -21, -10, -65, 43, -10, -17, -75, -8, -58, -27, -12, 62, 0, 28, 80, -25, 45, -40, 56, -35, -87, -58, 79, 52, 13, 11, -64, -41, -5, 30, 1, 86, -29, 91, 69, -54, 22, -30, -22, -38, 9, 33, -76, -8, -15, -52, 47, -50, 89, -50, -11, 24, 16, 10, -33, -3, 47, 37, 48, -38, 0, -17, 39, 29, 59, -70, -21, -9, 1, -39, 16, -27, 6, 74, -35, -29, 35, 2, 39, -19, -12, 29, 56, 75, 9, 43, -4, 55, 30, 21, 54, 71, 35, -26, -57, -13, -32, 3, 7, -5, 26, -76, 69, 28, -23, 45, 19, 9, -44, -31, 51, -17, 31, 41, -57, -3, 69, 79, -1, -12, -66, 34, 10, -69, -12, 36, 86, 81, -63, 45, 31, -14, 44, -3, 27, 37, 46, 22, -47, -13, 15, 27, 55, 31, 67, 33, 75, 88, 26, -6, -11, 26, 20, 70, 68, -88, 48, 84, 47, -87, 72, 45, 10, 7, 0, -68, 79, -77, 3, -5, -75, 77, 9, 20, 57, 87, -4, 68, -13, -82, 42, 6, 79, 1, -50, 71, 73, 24, 75, -5, 17, -52, -8, 58, -39, 76, 78, 23, 24, 18, 53, 38, -88, -13, 33, 68, 56, 15, -77, -22, 29, 25, 49, -48, -31, 64, 27, 38, 21, 64, 2, -67, 75, -64, -2, -8, 22, 0, 29, 13, 43, 83, 0, -50, 49, 20, 35, 23, 57, -34, 6, 56, 83, 20, 71, 24, 22, 51, 63, 26, -34, -31, -28, -16, 77, -80, 21, -67, 46, 12, -16, 43, 13, 49, 19, 48, 2, 36, 74, -26, 13, 85, 91, 67, -38, 3, -20, 32, 25, 16, 53, -48, 85, -26, 44, 83, -16, 72, -68, 89, 44, -2, -88, 18, -79, 47, 26, 65, 27, -33, -91, 28, 58, 25, -70, 82, -18, 73, -88, 50, -39, -5, 42, 10, -66, -7, 36, 15, 35, 23, 50, 90, 1, 30, 48, 7, 54, 35, -61, -28, -82, -1, 5, -38, -31, -28, 65, 21, 8, -57, 9, 27, -3, 40, -36, 80, 46, 37, 15, 45, 33, 0, 25, 8, 8, 10, 24, -30, 22, 12, 72, 42, 30, -27, -13, 33, 56, -26, -6, -6, 52, 73, -38, 59, -6, -29, 9, -11, 0, 68, -20, -31, 3, -21, 0, 73, 85, 72, -6, 87, 66, 72, 45, 90, 36, -88, 16, 18, 3, -37, -27, 77, -74, 9, 6, 6, -7, -66, 75, -45, -1, 51, 74, -10, 55, 86, 33, 89, -65, -17, -47, 47, 50, -62, -59, 38, 6, 79, 15, 87, -65, -4, 41, -11, -38, 8, 6, 19, 15, -7, 4, 57, -49, 28, 0, 10, -7, 13, 44, 13, 69, 40, 40, 60, -1, -3, 6, 41, 63, -22, -35, 1, 32, 31, 35, -12, -36, 28, -12, 7, -26, -54, 0, -37, 1, -27, 69, 78, 16, 56, -17, 79, 35, 78, 9, -50, 42, 31, 25, -80, -20, 58, -72, 32, 87, -29, 50, -16, 38, -5, 21, -4, -8, 27, -20, 42, 34, 71, -49, -57, -43, 53, 35, -61, 28, 7, 91, 93, 14, -2, -35, -27, 31, -17, 10, 2, 6, 37, -27, 23, -70, 53, 5, 7, 26, 17, -10, -27, 86, -22, -25, -26, -18, 10, 86, 34, -10, -16, 72, 1, 63, 18, -12, 79, 56, -13, 50, -8, 82, 78, 68, 37, 83, 7, 73, 37, 87, 94, 71, -22, -16, -3, -26, 25, 66, 29, -41, 61, 59, -18, 40, -12, 8, 23, 12, -66, 25, -38, 22, -33, 11, 62, 71, -19, 9, 78, 1, 69, 47, 7, 28, 85, -35, -16, 78, -98, -45, 24, 1, -75, 73, 79, -35, 42, 32, -44, 9, 19, 12, -88, -25, 47, -21, 6, 14, 85, 38, 14, -31, -59, 37, 14, 54, 26, -27, 58, 0, 51, 7, -8, -48, -50, 47, -28, -45, -16, -27, -29, 38, 3, 77, -18, -64, -18, -35, -81, 7, 21, 2, -78, 37, -10, -80, -94, -23, 59, -10, 89, 4, 4, -58, 14, 28, -8, -56, 33, -20, 48, -24, 15, 9, 86, 39, -75, 80, -39, -10, -19, -67, -22, 67, 24, -11, -15, 85, -61, -31, 33, -38, -24, -13, 46, -30, -10, 44, -4, 20, 1, 35, 23, -53, 49, 44, 3, 78, 3, -43, 36, 56, 10, 70, -63, 55, 20, -52, 27, -17, 43, 38, -8, -52, -3, 54, -27, 30, 71, 24, 41, 8, 49, 46, 46, -21, -61, -3, -29, 27, -18, -23, 14, 11, -49, -57, -80, 2, 80, 54, -8, -42, 63, -7, 69, 36, -12, -80, 9, -4, 4, -9, 75, -48, 14, -10, 7, 85, 18, 85, 79, -56, 69, -15, 71, -25, 21, 61, -18, 3, 12, -86, -51, 82, 81, -39, -2, 12, -13, 77, 67, 74, -53, -41, 28, 77, 89, 80, 38, 23, -1, 23, -5, 48, -78, -47, -46, -25, 23, -3, 10, 84, 33, -60, -35, 74, 1, -87, -2, -71, 68, -9, 48, 40, 33, 1, 39, 13, -59, 23, -53, 21, -39, -7, -16, -18, -65, 29, 21, 27, -7, -25, 75, -43, 42, 18, -32, -16, -20, 54, 41, 62, 36, 45, 6, 77, 31, 2, 68, -54, 39, -13, 14, 46, -39, -18, -22, 37, -11, 58, 54, -40, -25, -36, -37, 5, 23, 9, 6, -40, -65, 58, 55, 15, -47, -43, -20, 47, -15, 62, -31, 35, 79, 13, 51, -57, 75, 80, -12, -11, 48, -16, -63, -15, 63, -9, -11, 44, 71, 4, -11, 70, -24, -82, -6, -7, 7, -30, 15, -14, -66, 18, 59, 84, 46, -37, -24, 43, -31, 3, -87, 31, 69, 15, 64, 30, 49, -4, -82, -18, -19, 57, 35, 53, 22, 61, 44, 7, 8, -44, -43, -23, -21, -65, -5, -19, -33, 44, 3, 0, 27, 40, 10, -70, -78, 46, 5, -75, -27, 22, -2, -2, -14, 81, -7, -61, -58, 32, -56, 63, 84, 18, -7, 54, -17, 16, -3, 7, -51, -48, -39, -63, -29, 0, 20, -80, -4, -4, -42, 24, 10, 35, -70, 15, -22, 81, -18, 84, -32, -61, -25, -25, -30, 80, 3, 67, 29, 48, 66, 26, -78, 39, -39, 46, 29, -11, 24, -26, -56, -36, -8, 69, 61, -5, -74, 55, 0, 2, 47, -30, 24, 20, -39, 18, 18, -55, -52, -26, 11, 12, -60, 61, 16, -8, 0, 53, -46, 27, -16, -64, 51, 10, 38, 78, -49, -52, -77, 48, -48, 41, -32, 45, -9, 70, 53, -43, -4, 78, -80, -63, -62, -12, -29, -21, -6, 7, 59, 18, 17, 70, 23, 88, 6, 37, -72, 40, 63, 44, 3, -15, -89, 24, 89, -9, 47, -6, 88, 59, 15, -42, 24, 50, -81, -6, 64, -77, 40, 19, 14, -36, 63, 6, -3, 68, -74, 12, 10, -16, 64, -2, -11, -14, 5, 19, -49, -93, -94, 42, 20, 48, -35, 19, 4, 36, 14, 26, -87, -29, 48, 21, 86, -22, 65, 63, -33, 87, -44, 46, 53, 28, -24, 1, 57, 66, 14, -56, -29, 24, 56, 15, -4, 50, 15, -54, 20, -14, 46, 25, 80, 2, 82, -16, 58, -19, 18, 86, -8, 86, 63, -1, -84, 38, -24, 17, -29, 38, 64, 51, -16, -33, -16, 27, 18, -26, 7, 2, 17, 73, -10, -66, 5, 13, 71, -29, -48, 55, 46, -45, -43, -22, 31, 12, 63, 54, -72, 9, 11, 52, 18, 30, -44, 11, -19, -37, 8, 52, -35, -64, -26, 14, 13, 79, 75, -13, -40, -12, 61, 90, 51, -58, -55, 67, 35, 4, -27, -87, -18, 23, 20, 23, 49, -10, -4, 49, 40, 40, -59, -6, 58, -18, 51, 90, 79, 54, 15, 58, 56, 47, 61, -60, 22, 63, 11, 55, -17, -3, 79, 80, 65, 70, 28, -3, -30, -9, 30, 73, 60, 53, 41, -6, 72, -8, 42, 52, -66, 66, -21, 45, 25, -17, 18, -6, 20, -5, -37, -22, -97, -13, 73, 70, 5, 85, 9, 33, 13, -24, -82, 3, -29, 43, 18, 40, 53, -15, -36, 66, 24, -8, 30, -4, 26, -27, 89, -11, 29, -34, 54, -25, -29, 32, -16, 37, 19, 45, 36, 19, -11, 0, -22, 18, 38, 44, -10, 3, -55, 67, -23, -1, 7, -23, -25, -5, -3, 7, -82, 0, 49, 28, 22, 73, -88, 2, -12, -39, -73, 36, -27, 64, 32, -27, -6, 59, 10, 53, -15, 89, 37, -49, -81, -88, 4, -13, 0, 39, -17, -32, -44, -5, -21, 65, 72, -73, 10, -48, -21, -22, -71, 24, 1, -27, 82, -47, -9, 8, 8, -67, -6, -42, 39, 23, 3, 70, 0, 26, -46, 50, 59, 87, 84, 21, -66, 18, 78, 77, -8, 52, 2, -20, 11, 35, 55, 32, 29, -2, -60, 8, 32, 23, 1, -24, -49, -23, 59, 46, 30, 8, 68, -12, -20, -69, -11, -21, -10, -34, -18, -30, 72, -16, 21, 1, 59, -22, 10, -30, 24, 58, 86, 52, 78, -19, 21, -31, -78, -70, -54, -30, -43, 33, -13, 78, -21, 30, 58, -75, -47, 44, -45, -3, 0, -35, -33, -1, 41, 1, 42, -29, -11, -44, -66, -17, -79, 5, 65, 30, 26, 55, 17, 32, 66, 80, 42, 21, -30, 8, -37, -9, 50, 11, 63, -25, 36, 82, -17, 73, 15, 65, 57, -12, 40, -39, -29, 51, -17, 14, -11, 4, -22, 47, -60, -8, 27, 32, -56, 49, 34, -40, 55, -27, 37, -17, 0, 22, -7, 22, -67, 68, 20, 53, 7, -96, -24, -28, 1, 25, -27, -52, -70, -89, -23, -22, 27, 18, 60, -37, -72, 0, -10, -54, -3, 0, -6, 26, 47, 36, -7, 2, 24, -4, -81, -82, -61, -27, -14, 48, -21, 56, 38, 12, 21, 29, 27, -7, -19, -62, -15, 69, -26, 4, 51, -24, 48, -17, 37, 76, 7, -3, 86, 47, 25, 33, -64, -67, 18, -30, 44, 20, 1, 60, -12, -28, -86, 49, -28, 77, -26, 8, 73, 75, 15, 15, 73, 26, -4, 6, 26, 47, 17, 29, 73, 26, 69, -90, 20, -76, -10, 26, -86, -82, -49, -21, 47, -64, 46, -47, 51, 51, -35, -54, 72, 34, 60, -1, 30, -68, 82, 78, -36, -10, 25, -68, -13, -10, 53, 87, -31, -29, 14, -56, 50, -25, 8, 3, 56, -18, 13, -17, -71, -1, 43, -3, -3, 78, 83, 20, 60, -6, 15, -22, -42, -23, -19, -74, 17, -69, 4, -79, 46, 64, -2, -12, 24, 6, 12, 9, -4, 17, 23, 84, 13, -30, 34, -12, -40, -74, 31, -7, -11, -26, 0, 41, 66, 13, 0, -22, 10, -82, 33, -91, 95, 39, 89, -12, 59, -44, 37, 85, 22, -13, 58, 1, 27, 40, 43, -14, 18, 85, -14, 76, 43, -75, 28, 67, -1, 56, 6, -60, -93, 12, 59, 86, 21, 2, 95, -36, -35, -7, -29, -72, -7, -57, 12, 78, 47, 5, 37, 35, -12, 60, -85, 25, 72, -74, 52, -53, 5, -42, 27, 65, -30, -26, -25, -41, -56, 70, 93, -3, -21, 46, -51, 70, 2, 2, -40, 27, 10, 1, 56, 63, 39, 45, -6, -14, 25, -38, 10, -64, -41, 22, 14, 9, 74, 26, 5, 26, 11, 63, -85, -59, 27, 27, 31, 31, 76, -12, 82, 7, -49, 22, 3, -67, -10, -19, 45, 65, -72, 28, -53, 20, 96, 58, -10, -18, 57, -41, -52, 85, -15, 16, 92, -67, 35, 84, 40, 15, 4, -18, -28, 77, -26, -24, 47, -42, 78, 10, 75, -47, 29, -24, -24, -18, -31, -51, 33, 90, -8, 20, 39, 85, 58, -11, -26, 17, -17, -25, -12, 22, 55, 20, 20, 9, 7, 23, 55, 36, -18, 51, 76, 12, 63, 37, 23, 86, 60, 23, -49, 15, 4, -4, 23, -73, -27, 1, -10, 90, -39, 8, 86, -28, -48, 46, 72, 16, -38, -23, -18, 51, -38, -16, 46, 38, -5, 10, 2, 4, 7, -24, 18, 2, 79, -4, 70, 31, 13, 6, 85, -4, -72, 30, -19, -3, 77, -12, 30, -56, -3, -72, -73, -62, -10, 59, 78, 6, 72, -5, 25, 42, 8, -19, 62, -60, 71, 18, 0, 21, -18, -13, 7, -8, 27, -61, -29, 24, -28, 25, -5, 54, -14, 68, 22, 68, -14, 28, 49, -28, -15, -30, 57, 80, 58, -88, -10, 24, 18, 19, -41, -6, 27, -53, -9, -14, 2, 31, -72, 24, 79, 58, -62, -87, 71, 69, 2, -24, 75, 1, 27, 36, 55, -41, 8, 2, 68, 16, 14, -23, 21, 46, 20, -31, -7, 7, 17, 23, -2, -56, -57, -41, -10, -48, 78, 67, 5, 65, 62, -47, 40, -6, -72, -63, -7, 23, 57, -13, 69, 37, -25, -17, -43, -3, -18, -30, -79, 84, 85, 32, -33, 70, 63, 89, -6, -16, -50, 51, 80, -36, 26, -4, 76, 2, 41, -33, 62, 22, 93, -13, 53, 53, 69, 49, -42, 48, 73, 16, -71, -75, 21, 37, -3, 17, 27, 62, 43, 3, 30, 84, 27, 10, -24, -74, 37, 51, -20, -36, -7, 7, 72, -66, 11, 5, 25, -37, -33, 89, -10, -47, -52, -20, -76, 22, 51, 70, 70, -46, -3, -55, 32, 63, -33, -3, 58, 36, 26, 53, 25, 89, 24, -29, -63, 11, -48, -1, 43, 0, 27, -35, 42, -54, 67, 28, -73, 33, -54, -72, -46, 54, 14, -7, -15, 26, -16, 86, 41, 32, -33, 3, -71, 62, 56, -9, 90, 25, -89, 54, 28, -26, 21, 13, -2, 27, -3, -87, -15, 43, -13, -3, 68, 17, 74, 56, 24, -53, -50, 74, 17, 87, -91, 17, 3, 77, 22, -18, -86, -7, 68, 27, 57, -3, 37, 39, -49, 22, -52, 85, 5, 73, -37, -95, 9, 54, 22, 25, -68, 40, 36, 74, 5, 65, -14, -28, 8, 42, -16, -1, -2, -59, -11, -57, 31, 49, -5, 35, -57, -62, -25, 40, 82, 47, 41, 70, -14, -7, 79, 5, -61, 6, 35, 19, 32, 1, 27, -31, -53, 87, 39, 50, 27, 84, 46, 87, 70, -31, -61, -5, 9, 51, 88, -60, 88, 82, 34, -36, -28, 84, 70, -7, -42, 58, 27, -14, -30, 55, -26, 58, 69, 86, -10, -5, 50, 71, -47, -52, 33, 75, 9, 85, 63, -36, 68, 58, 17, 60, -29, 62, 20, 15, -79, 6, 22, -21, -16, 30, 49, 29, 28, 63, -5, 0, -18, 17, -31, -15, 53, -35, -34, 10, 33, -76, 14, -23, 36, -17, -50, 56, -22, -37, -27, 35, 21, 58, 67, 13, 10, -5, 0, 64, 90, 10, 70, 49, -51, -55, -58, -10, -21, 18, 7, 24, -24, -5, -45, -13, -36, 61, -32, 29, -75, 73, 34, 54, 72, -7, -46, 41, 92, 20, 46, -4, 84, 58, -63, 47, 8, 7, -68, -29, 19, 40, 93, -15, 33, 33, -39, -60, -84, -47, 63, 34, 35, -35, 71, -33, -13, -51, -6, -16, 25, -12, -15, 6, 34, 11, 34, -73, 31, -9, -25, 10, -15, -57, 81, 90, -19, -16, 17, 21, 85, -60, -81, 1, 49, 40, -13, -4, -81, -35, 29, -67, -68, -48, 45, 92, 71, -60, -20, -83, -53, 17, -16, -14, 81, -9, 0, -9, 67, 70, -3, 87, -1, 51, -41, 19, -22, -81, 64, -66, -34, -14, 16, 54, -8, 1, -18, -83, 30, 3, -31, 29, -43, 43, 56, 60, -13, 36, 91, 52, 50, -19, -45, 40, 43, 64, 59, -50, -3, 11, 26, -16, 34, -79, 52, -6, 47, -31, 64, 20, 42, 1, -9, 28, 72, 44, 38, -6, 0, -10, 93, -2, -59, 43, -26, 18, 18, 30, -26, -45, -70, -16, -28, 27, -27, 90, 82, -37, 5, 14, -41, 73, -42, -89, 54, -44, 47, 71, -30, 17, 45, 78, -18, 2, -54, -26, -34, -18, 37, -28, 29, -81, -60, -36, 26, -35, -31, -84, 87, 27, 59, 39, -77, 29, 51, 10, 32, 72, 46, 31, -32, 34, 15, 79, 76, 60, 20, 41, -23, 0, -34, -30, -47, -51, 36, 1, 51, -79, 71, -18, -72, 44, 31, -64, 46, 2, -23, 10, 69, 20, 51, -41, -14, -7, -66, -30, -27, -93, -24, -83, 34, -3, -38, 12, 65, 22, 43, -56, -18, -25, -46, 28, -61, -91, 65, 16, -21, 83, 45, 55, 5, 7, 13, 31, -22, -53, 44, -14, -8, -24, -55, -11, 32, -28, -7, 52, -31, 30, 10, -55, 0, 90, -45, 33, 19, 7, -19, 5, -10, -39, -15, 60, 24, 56, -10, -65, -56, 71, 10, 70, 3, 41, 20, -9, 66, 15, -24, 15, 21, -46, -51, 2, -7, -2, 16, -93, -15, -2, 85, 45, -67, 88, -45, 85, 5, -38, -30, 79, -52, 21, 36, 21, 58, 12, -23, -20, -6, -26, 46, -9, -19, 3, 47, 29, 23, -33, -88, -30, -22, 38, 70, 24, 48, 5, 61, -63, 42, 44, -9, -76, -73, 32, -43, -93, 40, -20, 29, -36, 66, -85, 1, 30, -84, 27, 26, -10, 74, -19, 38, 17, 86, -41, -25, -69, -89, -80, 23, 36, -19, 20, -70, 40, -29, 72, 65, 45, -18, 89, 14, -84, 30, 33, -12, 43, -23, -90, -11, 64, 14, 37, 15, 6, -22, 1, -5, 37, -34, 17, 0, 50, 75, 29, 14, 52, 18, -16, 13, 37, 2, 49, -26, -85, -9, -8, -54, -25, -32, -43, 5, 50, -35, 4, 74, -15, -17, 35, 13, 51, -66, -35, -21, 91, 36, -2, 26, 92, 64, 3, 14, -49, -71, 22, -80, -22, 81, -23, 15, 3, 44, 81, 67, -30, -8, -20, 6, -62, -46, -34, 58, 69, -77, 37, -46, 14, 76, 9, 26, 42, 30, -56, -34, 10, -43, 46, 0, -36, -27, 59, -28, 74, -39, 59, 33, -1, 4, 50, 37, 23, -17, -17, 80, 3, 59, 8, 36, -53, 32, 31, -5, 56, 21, -23, 66, 32, -67, 16, -20, 57, -38, -41, 22, -48, -15, -71, -29, -7, -44, 49, -19, -3, -86, -24, 16, 17, 13, 15, 24, 75, -15, -71, -62, 45, -82, -49, 65, -12, 36, -86, 20, 32, 19, 24, 25, -5, 6}

#define TENSOR_CONV2D_1_KERNEL_0_DEC_BITS {9}

#define TENSOR_CONV2D_1_BIAS_0 {96, 109, 124, 78, 75, 127, 24, 89, 104, -48, 95, 114, 25, 113, 109}

#define TENSOR_CONV2D_1_BIAS_0_DEC_BITS {11}

#define CONV2D_1_BIAS_LSHIFT {3}

#define CONV2D_1_OUTPUT_RSHIFT {11}

#define TENSOR_DENSE_KERNEL_0 {40, 42, 85, -42, 73, 81, -58, -58, -30, 35, 3, -75, -30, -40, -33, 25, -13, -81, -55, -51, 49, -52, 40, -44, 70, -72, -32, -62, -50, -56, 19, 86, 102, 106, 30, 35, 7, 108, -10, -24, -40, -40, 6, 22, -59, 17, 66, 37, -19, -103, 39, 20, -89, -6, -88, -93, -12, -7, -2, -1, 53, 54, 46, -16, 69, -1, 63, 41, -51, 18, 41, -39, 53, -9, 49, 23, -62, 25, -37, 23, 59, -12, -55, -51, 16, 27, -10, -20, -71, 96, 77, -20, 22, 30, 97, 53, 92, 12, -9, -87, 11, -56, 0, -79, -90, -18, 100, -107, 4, 114, -25, 57, 53, -43, -13, -89, -5, 69, -21, -22, 3, 11, -46, 28, -43, -24, -21, -14, 111, 69, 76, -16, 20, 39, -13, 12, 19, -27, -7, -74, 77, 89, -13, 41, -38, -101, -18, 48, -111, -46, 54, 57, 43, 53, 51, 99, 18, 17, 76, 50, 71, -89, -20, 10, 0, -66, -7, -13, -61, -24, 6, -71, 70, -57, -51, 58, 47, 105, 32, 20, 11, -33, -13, 23, 40, 101, -25, -56, 107, 37, -38, -59, -79, -24, 49, -111, 106, -83, 91, 29, 11, 13, 24, 7, -7, -88, -5, 61, -55, -39, -35, -74, 19, 23, -33, -48, -35, -26, 1, -73, 1, 48, 76, -33, 20, 96, -102, 28, 26, 0, 16, 50, 47, 63, 9, 80, 110, -104, -83, 98, -98, -112, -32, 26, 55, -44, 7, 12, 94, 97, 31, 3, 13, 43, 31, -22, 83, 32, 35, 6, -87, -32, -97, 47, 7, 110, -36, 1, 27, 22, 16, -104, -30, 84, 26, 65, 40, -82, 15, -40, -42, 47, 28, 28, 40, 61, -61, -14, -116, -23, 54, -18, 36, 27, -39, -82, -6, 37, -14, -16, -67, 92, -103, -4, 105, 22, -61, 92, -43, 38, -92, 49, -12, 14, 111, -95, -22, -18, 97, -92, 15, 6, -60, -12, 46, -46, 21, -58, -4, -56, -43, 68, 40, 20, 38, 47, 7, -6, -1, 86, 35, 89, -60, 79, 95, -79, -6, 47, -95, -68, 70, 10, 45, 61, 30, -52, 50, 70, 38, -88, -76, -12, -17, -56, 32, -106, -42, -20, -2, 93, -67, -45, 41, 78, 75, -13, 62, -33, -39, -76, -36, 33, 27, -39, 8, -80, 3, -24, -19, 43, -62, -97, 29, 94, -63, 36, -18, -32, 15, 2, -24, 11, 63, -46, -70, 84, -2, -10, 37, -109, -22, -88, 92, -38, 29, -40, -22, -60, 47, -109, -40, -97, 104, 25, -1, -9, -67, 25, -105, 18, -94, -62, -54, 110, 87, -14, 21, 54, -25, 32, -46, -50, -6, -34, 31, 2, 49, -90, 100, 28, -57, 27, 26, 24, 93, 30, 28, 13, 42, -118, -16, -11, 52, -35, -74, -51, -42, 29, 104, -104, 35, -59, 34, -52, -46, 76, -4, 48, 33, -89, 5, 7, 49, 69, 39, 4, -20, -47, 4, -13, 29, 49, 36, -105, -30, -17, -23, 20, 102, 33, -91, 3, -5, 59, -31, -8, -16, -31, 13, 19, -47, 20, 78, -45, 63, -48, 16, 18, 39, -64, 46, 2, 19, -89, 59, 43, 1, -6, 93, -45, -2, -43, -18, 3, 23, -40, 59, 4, 56, -29, -4, -100, 14, -107, -30, -22, -50, 9, -22, 10, -32, -2, 79, -3, 34, -21, -108, -1, -83, -101, -74, 74, 35, 112, -86, 52, -73, -46, -85, -13, 12, 37, 67, -71, -92, 17, -26, 25, -52, -36, -103, 51, -42, -39, -3, -38, -1, 84, -45, -44, 28, 82, -101, -23, -91, 36, -23, 97, -20, 60, 6, 3, -60, -39, 66, -51, -38, 46, 41, 63, 16, -74, -44, 64, 19, -21, -11, 71, 60, 58, -70, 84, -70, 42, 93, 7, -43, 19, -39, -50, -34, 91, -94, 87, -116, 30, 74, 66, -12, 41, 34, -46, -63, 53, 34, -41, 10, 43, -30, -61, -76, -109, -45, -94, 45, -108, 5, -9, -44, 13, 71, -12, -57, -34, 79, -100, 7, -48, 23, 0, -55, 73, 11, -96, -8, 14, 67, -66, 62, -96, 26, 93, -42, 60, -48, -20, 56, 39, 95, 55, 63, -79, 5, -29, -18, -43, 75, -105, -36, 13, -66, -43, 58, -77, -45, 24, -84, -31, -47, -33, -43, 10, -122, -41, 15, 61, -23, 14, -78, 37, -19, 33, 65, -1, -5, -26, 81, -33, 40, -10, -81, 49, 5, 90, 64, -20, 42, -42, 26, -113, -46, 26, -7, -9, 91, -22, -56, -46, 27, 2, -8, -19, 0, -76, 47, 41, -45, -33, 9, -62, 51, 1, 49, -108, 83, -44, -104, -79, 69, -6, -32, 12, -42, 50, -35, 86, -106, 15, -80, -54, 49, -63, 5, -31, 85, -40, -19, 34, -22, 14, 27, -86, -38, 47, 105, 12, -15, -56, -52, 84, -43, 28, 23, -41, 17, -21, 35, -114, -71, -68, -107, -4, 10, 15, 50, 16, -63, -57, 62, -90, -35, 42, -105, 22, 47, -85, -28, -28, -92, -17, 27, 17, -62, -88, 7, 7, -76, -55, 42, 94, 54, -50, 91, 35, -75, 64, -37, -42, 30, -66, 60, -7, 109, -93, 41, 112, -9, -54, 48, -104, -52, -117, 18, -5, 6, 85, -60, -73, 21, 94, 79, -5, 25, 8, 9, -19, 42, -14, 34, -26, -76, -44, -107, 61, 43, 57, -45, -9, 69, -86, 33, -119, 16, -92, 33, 47, -96, -81, -10, -107, 62, 21, -97, 34, -39, 43, 69, -73, -39, 60, -104, -31, -18, 45, 88, 66, 85, -36, 17, -17, -79, -66, 23, -58, 7, -34, 28, -16, -14, -19, 18, 97, -24, -60, -71, 59, 91, 63, -95, 93, 20, 87, 11, -65, 49, 114, 36, -70, -62, 45, -77, 32, -104, -73, -5, -79, 21, -41, 15, 65, -24, 63, 27, 1, 72, 43, -53, -77, -33, -112, 30, 51, -109, 44, 33, 33, -82, -20, -91, 10, 12, -46, 20, 1, 40, 3, -91, 4, 9, -60, 34, -42, 28, -57, 29, 87, -52, 37, -27, 41, -4, 71, -55, -70, 48, -70, -92, 47, 36, -17, -44, -41, -39, -93, -43, 1, -16, 10, -23, -86, -27, 79, -34, 61, 1, 9, 38, -59, -79, 50, -104, -34, -69, 96, 2, -29, 81, 30, 97, -95, 18, 6, -109, -48, -5, 67, 48, 22, -15, 98, 8, -14, 66, -82, 37, -32, 97, -50, 80, 43, 109, -70, -65, 10, 41, 51, -92, 11, -9, -100, 49, -16, 17, 31, -55, -85, 66, -102, -29, -104, 27, -24, -101, 46, 11, -67, 21, 11, 2, 9, -104, -60, 9, -58, -20, 55, -44, -49, -53, -99, -37, -53, -61, 1, 25, 39, -38, -64, 105, -88, 23, 40, 3, -94, -33, -27, 83, -32, 4, 21, -35, -13, -22, 46, 1, -42, 85, -33, 23, 72, -92, -11, -37, -20, -87, -63, -52, 22, -56, 76, -32, -58, -37, 26, -16, 31, 48, 52, -101, -98, -49, 74, -80, 71, 3, -14, -60, -26, 20, 30, 32, -38, 80, -14, 40, -99, -59, -85, 53, -23, -65, -49, 111, -7, 0, -56, -11, -105, 102, 7, 74, -40, -63, -47, 55, 35, -39, 41, 26, -87, -22, 93, -98, -80, -53, 18, -40, -116, -44, -41, 91, -7, -76, -50, 8, 70, 49, -4, -87, -63, 51, -99, 53, -11, -22, 31, -55, -104, -76, 5, -21, -63, 49, -39, -101, -6, 63, 46, -54, 7, 108, -99, -19, 40, -43, -18, -73, 21, 99, -65, -11, -25, 68, -28, 2, -70, -61, 20, -31, -23, 11, 36, 9, -99, -97, 77, -59, 87, -82, -31, 94, -100, -40, 6, 70, -40, -24, 3, 37, -72, -13, 42, -25, 68, 2, -65, 66, -97, 9, -82, -79, 77, 90, 28, 14, -2, -49, -31, -99, -41, -37, -100, 100, -57, 19, 22, 81, 91, 28, 62, 54, 38, 109, -45, -90, 13, -29, 23, -58, 1, -34, 86, -103, 10, -44, -104, -92, 76, 21, 59, 98, -37, -10, 16, 18, 90, 91, -50, -67, -39, 19, 91, -8, -11, -65, 5, -110, -1, -87, -58, 65, 4, -51, 6, 38, 11, 24, 71, -22, 5, 26, 37, -62, 43, -16, -68, -33, 40, 14, 57, -13, -74, -43, -11, -20, -4, -99, 26, 68, 31, -39, -104, 97, -99, -49, -28, 1, 91, -4, 4, -19, -35, 23, 26, -43, -60, -79, -34, -33, 26, -35, 77, -50, 53, -83, 41, -38, -8, -32, -29, 73, 57, -11, 73, -78, 39, 30, 35, 1, -64, 11, 8, -73, 51, -22, 11, -68, -8, -10, -65, -27, 62, 10, -7, -64, 44, -69, 12, -19, -17, -45, -25, 9, -13, -31, -45, -71, 9, -45, -55, -3, -71, 109, -32, -33, 66, -32, 79, 74, 61, -53, 97, 18, -22, 105, 2, 20, -39, -42, -65, 115, 46, -106, 46, -46, -45, -92, 37, 50, -18, -20, 16, -59, -47, -19, 9, 1, 61, -38, -45, 64, 23, 91, 27, -54, -26, -58, 36, 24, 54, -82, 8, -74, -25, 62, -10, -33, -33, 94, 44, -30, 53, -26, -84, -61, -24, -16, -80, 22, 70, 64, -91, 33, -21, 19, 9, 6, 74, -33, -36, -48, 10, 98, 79, 30, -51, -69, 76, 13, 48, 37, -76, 34, 95, -63, 12, -82, 86, 39, 6, -110, -4, -98, 46, 93, 15, -39, 44, -38, 14, -19, 10, 52, -10, -32, -94, 19, 24, 2, -61, 2, 76, -29, -32, 7, -32, -64, 46, 31, 35, -30, -42, -18, 3, 34, -70, 85, -54, 76, -113, 63, 69, 45, -12, -9, -39, -33, -25, 39, -53, -16, -64, 4, -19, -56, -64, 20, 73, 32, 37, -51, -5, -72, -23, 55, 21, 90, -51, -111, -62, -41, -112, -100, 45, -25, 39, -88, 71, -75, 7, 29, -17, -48, -19, 41, 54, -102, 43, -4, 12, 43, 75, 103, -19, 1, 76, 35, 46, -35, -90, 93, -74, 111, -5, -74, 78, 8, 85, -70, -69, -28, -3, 57, 18, -31, -15, 90, 20, -40, -86, 38, 16, -20, 8, 34, -31, 4, 35, -98, 53, -46, -7, 54, -101, -54, 5, -8, 5, 37, 21, 86, 9, 60, -25, 100, 34, -24, -3, 75, -77, 18, -95, -18, 5, 0, -29, -95, -26, 110, -77, -28, -63, -64, -51, 101, -2, -33, 81, 57, 31, 8, -89, 8, -21, 0, 22, 70, 27, 112, -65, 1, 44, 68, 18, -54, -108, -24, -27, 84, 70, 23, 86, 13, -75, 28, -54, -48, -40, -35, -31, -66, 1, 20, 30, -38, -5, -87, -114, 22, 64, 26, -4, -47, -20, -84, -29, -9, -4, 71, -25, 78, 7, -58, -16, 4, 94, 45, 40, -108, -97, 12, 76, 21, -73, 33, 23, 0, 53, -16, 28, -45, 61, 13, 106, -31, -98, -80, -10, -42, -47, 101, 25, -19, 56, 89, -36, -57, -84, 46, -10, -40, -81, -96, 78, 49, -56, -34, -97, -69, -47, -5, 17, -45, 1, -96, 31, 64, 15, -35, -63, -50, -32, 21, -67, -5, 96, -82, 74, -26, 10, 46, -64, -98, -114, -88, 33, -100, -49, 16, -46, -102, 55, -33, -90, 53, 10, -37, -69, -83, 21, 35, -85, -86, 86, 29, -6, -63, -6, -56, 87, -39, 23, 88, -15, 34, -107, 39, 98, 47, 12, 13, 20, -30, 24, -33, 41, -69, 3, 11, 67, -18, 4, -42, -90, 72, -90, 26, -30, 18, -100, -31, 29, -58, -11, -35, -111, -62, 47, 35, 63, -38, -55, 87, 90, -17, -10, 3, 42, -21, -10, 16, -48, -50, 10, -36, 118, -29, -88, 56, 33, -55, 84, 40, 38, -4, -42, 33, 52, -12, 82, 6, 45, -46, -65, 34, 41, 39, -45, 43, 80, -26, 0, -24, 59, -72, -20, -37, -72, -14, -87, 7, -85, -14, -62, 90, -106, -55, -1, 0, -27, 69, -48, -50, 11, 96, 48, 109, -78, -78, -98, -15, 80, -96, 7, 0, 67, 35, 13, 92, 43, 32, -106, 0, 4, -99, 0, -28, 45, -21, 17, -33, -90, -103, 54, -62, 63, -24, -14, 73, -97, 92, -10, 61, -71, 99, 46, 66, 80, 33, -95, -19, -69, 5, -46, 36, 15, 29, -58, 59, -18, -101, -16, 29, -90, 59, -37, -12, 5, -47, 44, -24, 17, -98, -23, 51, 2, -58, -96, -58, -51, -65, 14, 21, 3, 4, 46, 28, -110, 20, -41, -1, -89, -105, 34, 51, -106, 2, 47, -18, 0, 34, 8, -98, 54, -89, -86, -38, -55, 79, 39, 22, -66, -11, -39, 38, 10, 45, -35, -79, -41, 51, -38, 21, -17, 73, 1, -95, 21, 40, 40, -18, -8, 18, -22, -63, 26, 31, -26, -36, -54, -84, 35, -34, -79, -25, 42, 13, -69, -44, -78, -59, -13, -6, 24, 1, -6, -64, -62, 102, 43, -31, 100, -58, 4, 31, 40, 24, 76, -57, 37, 39, -73, 11, -11, 104, -20, 77, 52, 43, -31, -41, 107, -60, -44, 115, 14, -5, 39, 88, 90, 24, -14, 97, 37, 27, 36, -58, 0, -14, -93, 46, 3, 9, 48, 15, -78, 30, -38, 36, -38, -102, -59, -96, 3, -58, -28, 67, 75, 34, -84, 3, -90, -50, 59, 94, 32, 98, -32, 27, 20, -95, -10, 62, -7, -9, -68, -83, 40, -51, -67, 2, -48, -13, -55, -12, 36, -90, -57, 39, -57, -7, -82, -37, -11, -13, 26, -39, 69, 60, 31, 63, 46, -75, 15, 90, -64, 1, 23, -73, -82, -19, 72, 92, 85, 71, 18, 64, 30, -91, -70, -51, 21, -40, -40, 1, 74, -3, -22, 77, 40, 64, 56, 36, -55, 24, 66, -36, 44, 111, -15, 57, -48, 24, -58, -18, -32, -23, 1, -52, 63, -4, -66, 43, -86, -24, 63, -12, -24, -62, -30, -107, -34, -44, 69, 91, 54, 37, -60, -113, -21, 96, -3, -85, 10, 34, -13, -2, -38, -39, -79, -23, 32, -21, -49, -86, -8, 20, 95, -14, -53, -48, -28, 22, 27, 114, -5, -31, -105, -83, 5, 94, 40, -64, 13, 49, 15, -93, 38, 99, 59, 37, -102, 51, -59, -2, 44, -50, 95, 3, 83, -90, -95, 97, -80, -62, 41, 23, 6, 10, 66, -71, -78, 41, -39, 28, 59, 7, -109, -40, 45, -5, -35, 51, -6, 33, -46, -26, -107, 1, -6, 8, 96, -56, 60, 48, 41, -47, -45, -93, 102, -86, 25, 84, 85, 97, 4, -46, 5, -24, -55, 4, 30, 61, -3, 19, -60, -8, -4, -59, -7, -56, -64, 14, -71, -22, -28, 79, -36, -1, 32, -104, -5, 50, -51, 102, -50, 79, -64, -1, 17, -5, -24, -87, -27, -97, 71, -53, 3, -33, 68, -27, -15, 61, -61, -103, -57, -73, 48, -24, 93, 44, -20, 61, -29, -83, 49, -55, 50, -8, -26, -8, -47, 8, -7, -2, 57, 60, 38, -28, 29, -83, 9, 54, 91, -76, -78, -13, 35, 82, -11, -28, 24, -22, -33, -6, -31, 14, 35, 54, 68, 1, -57, 25, 33, 72, -71, -5, -50, -75, 3, 41, 68, 59, -74, 11, 53, -81, 103, 25, 11, -101, -35, 34, 98, 40, 105, -38, 32, 59, -75, -31, 103, -60, -66, -31, 49, -41, -53, 11, -60, 27, 102, 106, 68, 9, 20, 7, 37, 18, 57, 2, 29, 6, 24, 0, -23, 14, -82, 40, 38, 13, -14, -44, 62, 75, -111, 42, -9, -85, -111, -18, -69, 4, 3, 38, -33, -64, -46, -36, -70, -26, -52, -12, -67, -24, -87, 20, 29, 103, 27, -60, 66, -65, -19, -18, 44, -37, -79, 81, 34, 22, 48, 21, -52, -82, -6, 117, -25, 96, -42, 29, -45, 13, -71, 44, 82, 38, -26, 38, 46, 0, 90, -8, -19, -50, 33, -66, -90, -1, 109, -45, -13, -34, -8, -61, 27, -19, -13, -51, -77, -76, 30, 77, 6, -4, -32, 92, 75, 15, 68, -30, -81, -29, -40, -29, -90, 69, 84, 61, -104, 50, -37, -31, -70, -50, -29, 45, -75, -5, -72, 31, -48, -103, -75, -30, 23, -12, -27, 49, -111, 73, 6, 9, -116, 8, -44, -32, -48, -15, -50, 41, -36, 46, 7, 37, -33, -37, 45, 11, -25, -25, -28, -24, -95, -47, -62, -108, 27, -34, 28, -44, 34, -60, -36, 15, -15, -108, 11, -19, 18, 51, -23, 30, -25, -66, -46, -104, 20, 34, -24, -41, -61, -30, -105, -12, -23, -67, -23, 73, 29, 30, -67, -83, -69, -33, -104, -47, 1, 23, 67, 71, -12, -65, -2, -36, 31, 47, -76, -7, -8, 55, 67, -8, 72, 25, -35, -80, 103, 17, 52, 24, -9, 4, 4, 59, 66, 6, 49, -33, -77, 63, 35, 105, 84, -52, 30, -73, 46, 15, -59, 32, -54, 71, -77, 58, -61, 81, -30, -47, -71, 32, -46, -34, -75, -91, -96, -68, 10, 28, -22, -8, -58, 60, 31, -45, 83, -40, 91, -55, 73, -62, 34, -40, -58, 2, 2, -70, 1, 28, -77, 6, -24, 43, -11, -77, 10, 16, -27, -98, 27, 75, -57, 85, -28, -61, 60, -43, 34, -73, -115, 32, 25, 67, -34, -82, 35, -24, 7, -19, 79, -31, 55, -35, 38, -19, -33, -90, -67, 43, -83, 0, -59, -63, 43, 26, -1, -49, -71, -87, -105, -96, 80, -80, -51, 73, 49, 87, 12, 63, 12, 16, -60, -88, -83, -31, 24, 53, 65, -47, -29, 12, -87, 18, -35, -43, -63, -45, 37, 7, 29, 88, -67, 35, -59, 3, 41, -76, 80, 5, 66, 74, -7, 19, -20, -4, -39, 56, -70, -75, 73, 46, 45, -19, -90, 6, 4, 54, -36, 7, 15, 7, 59, 11, 65, -23}

#define TENSOR_DENSE_KERNEL_0_DEC_BITS {9}

#define TENSOR_DENSE_BIAS_0 {65, 19, 34, -24, 51, -3, 12, -64, -60, 61, -42, -31, 21}

#define TENSOR_DENSE_BIAS_0_DEC_BITS {10}

#define DENSE_BIAS_LSHIFT {2}

#define DENSE_OUTPUT_RSHIFT {9}


/* output q format for each layer */
#define INPUT_1_OUTPUT_DEC 4
#define INPUT_1_OUTPUT_OFFSET 0
#define CONV2D_OUTPUT_DEC 5
#define CONV2D_OUTPUT_OFFSET 0
#define LEAKY_RE_LU_OUTPUT_DEC 5
#define LEAKY_RE_LU_OUTPUT_OFFSET 0
#define CONV2D_1_OUTPUT_DEC 3
#define CONV2D_1_OUTPUT_OFFSET 0
#define LEAKY_RE_LU_1_OUTPUT_DEC 3
#define LEAKY_RE_LU_1_OUTPUT_OFFSET 0
#define AVERAGE_POOLING2D_OUTPUT_DEC 3
#define AVERAGE_POOLING2D_OUTPUT_OFFSET 0
#define FLATTEN_OUTPUT_DEC 3
#define FLATTEN_OUTPUT_OFFSET 0
#define DENSE_OUTPUT_DEC 3
#define DENSE_OUTPUT_OFFSET 0
#define SOFTMAX_OUTPUT_DEC 7
#define SOFTMAX_OUTPUT_OFFSET 0

/* bias shift and output shift for none-weighted layer */

/* tensors and configurations for each layer */
static int8_t nnom_input_data[450] = {0};

const nnom_shape_data_t tensor_input_1_dim[] = {150, 3, 1};
const nnom_qformat_param_t tensor_input_1_dec[] = {4};
const nnom_qformat_param_t tensor_input_1_offset[] = {0};
const nnom_tensor_t tensor_input_1 = {
    .p_data = (void*)nnom_input_data,
    .dim = (nnom_shape_data_t*)tensor_input_1_dim,
    .q_dec = (nnom_qformat_param_t*)tensor_input_1_dec,
    .q_offset = (nnom_qformat_param_t*)tensor_input_1_offset,
    .qtype = NNOM_QTYPE_PER_TENSOR,
    .num_dim = 3,
    .bitwidth = 8
};

const nnom_io_config_t input_1_config = {
    .super = {.name = "input_1"},
    .tensor = (nnom_tensor_t*)&tensor_input_1
};
const int8_t tensor_conv2d_kernel_0_data[] = TENSOR_CONV2D_KERNEL_0;

const nnom_shape_data_t tensor_conv2d_kernel_0_dim[] = {3, 3, 1, 30};
const nnom_qformat_param_t tensor_conv2d_kernel_0_dec[] = TENSOR_CONV2D_KERNEL_0_DEC_BITS;
const nnom_qformat_param_t tensor_conv2d_kernel_0_offset[] = {0};
const nnom_tensor_t tensor_conv2d_kernel_0 = {
    .p_data = (void*)tensor_conv2d_kernel_0_data,
    .dim = (nnom_shape_data_t*)tensor_conv2d_kernel_0_dim,
    .q_dec = (nnom_qformat_param_t*)tensor_conv2d_kernel_0_dec,
    .q_offset = (nnom_qformat_param_t*)tensor_conv2d_kernel_0_offset,
    .qtype = NNOM_QTYPE_PER_TENSOR,
    .num_dim = 4,
    .bitwidth = 8
};
const int8_t tensor_conv2d_bias_0_data[] = TENSOR_CONV2D_BIAS_0;

const nnom_shape_data_t tensor_conv2d_bias_0_dim[] = {30};
const nnom_qformat_param_t tensor_conv2d_bias_0_dec[] = TENSOR_CONV2D_BIAS_0_DEC_BITS;
const nnom_qformat_param_t tensor_conv2d_bias_0_offset[] = {0};
const nnom_tensor_t tensor_conv2d_bias_0 = {
    .p_data = (void*)tensor_conv2d_bias_0_data,
    .dim = (nnom_shape_data_t*)tensor_conv2d_bias_0_dim,
    .q_dec = (nnom_qformat_param_t*)tensor_conv2d_bias_0_dec,
    .q_offset = (nnom_qformat_param_t*)tensor_conv2d_bias_0_offset,
    .qtype = NNOM_QTYPE_PER_TENSOR,
    .num_dim = 1,
    .bitwidth = 8
};

const nnom_qformat_param_t conv2d_output_shift[] = CONV2D_OUTPUT_RSHIFT;
const nnom_qformat_param_t conv2d_bias_shift[] = CONV2D_BIAS_LSHIFT;
const nnom_conv2d_config_t conv2d_config = {
    .super = {.name = "conv2d"},
    .qtype = NNOM_QTYPE_PER_TENSOR,
    .weight = (nnom_tensor_t*)&tensor_conv2d_kernel_0,
    .bias = (nnom_tensor_t*)&tensor_conv2d_bias_0,
    .output_shift = (nnom_qformat_param_t *)&conv2d_output_shift, 
    .bias_shift = (nnom_qformat_param_t *)&conv2d_bias_shift, 
    .filter_size = 30,
    .kernel_size = {3, 3},
    .stride_size = {3, 1},
    .padding_size = {0, 0},
    .dilation_size = {1, 1},
    .padding_type = PADDING_SAME
};
const int8_t tensor_conv2d_1_kernel_0_data[] = TENSOR_CONV2D_1_KERNEL_0;

const nnom_shape_data_t tensor_conv2d_1_kernel_0_dim[] = {3, 3, 30, 15};
const nnom_qformat_param_t tensor_conv2d_1_kernel_0_dec[] = TENSOR_CONV2D_1_KERNEL_0_DEC_BITS;
const nnom_qformat_param_t tensor_conv2d_1_kernel_0_offset[] = {0};
const nnom_tensor_t tensor_conv2d_1_kernel_0 = {
    .p_data = (void*)tensor_conv2d_1_kernel_0_data,
    .dim = (nnom_shape_data_t*)tensor_conv2d_1_kernel_0_dim,
    .q_dec = (nnom_qformat_param_t*)tensor_conv2d_1_kernel_0_dec,
    .q_offset = (nnom_qformat_param_t*)tensor_conv2d_1_kernel_0_offset,
    .qtype = NNOM_QTYPE_PER_TENSOR,
    .num_dim = 4,
    .bitwidth = 8
};
const int8_t tensor_conv2d_1_bias_0_data[] = TENSOR_CONV2D_1_BIAS_0;

const nnom_shape_data_t tensor_conv2d_1_bias_0_dim[] = {15};
const nnom_qformat_param_t tensor_conv2d_1_bias_0_dec[] = TENSOR_CONV2D_1_BIAS_0_DEC_BITS;
const nnom_qformat_param_t tensor_conv2d_1_bias_0_offset[] = {0};
const nnom_tensor_t tensor_conv2d_1_bias_0 = {
    .p_data = (void*)tensor_conv2d_1_bias_0_data,
    .dim = (nnom_shape_data_t*)tensor_conv2d_1_bias_0_dim,
    .q_dec = (nnom_qformat_param_t*)tensor_conv2d_1_bias_0_dec,
    .q_offset = (nnom_qformat_param_t*)tensor_conv2d_1_bias_0_offset,
    .qtype = NNOM_QTYPE_PER_TENSOR,
    .num_dim = 1,
    .bitwidth = 8
};

const nnom_qformat_param_t conv2d_1_output_shift[] = CONV2D_1_OUTPUT_RSHIFT;
const nnom_qformat_param_t conv2d_1_bias_shift[] = CONV2D_1_BIAS_LSHIFT;
const nnom_conv2d_config_t conv2d_1_config = {
    .super = {.name = "conv2d_1"},
    .qtype = NNOM_QTYPE_PER_TENSOR,
    .weight = (nnom_tensor_t*)&tensor_conv2d_1_kernel_0,
    .bias = (nnom_tensor_t*)&tensor_conv2d_1_bias_0,
    .output_shift = (nnom_qformat_param_t *)&conv2d_1_output_shift, 
    .bias_shift = (nnom_qformat_param_t *)&conv2d_1_bias_shift, 
    .filter_size = 15,
    .kernel_size = {3, 3},
    .stride_size = {3, 1},
    .padding_size = {0, 0},
    .dilation_size = {1, 1},
    .padding_type = PADDING_SAME
};

const nnom_pool_config_t average_pooling2d_config = {
    .super = {.name = "average_pooling2d"},
    .padding_type = PADDING_VALID,
    .output_shift = 0,
    .kernel_size = {3, 1},
    .stride_size = {3, 1},
    .num_dim = 2
};

const nnom_flatten_config_t flatten_config = {
    .super = {.name = "flatten"}
};
const int8_t tensor_dense_kernel_0_data[] = TENSOR_DENSE_KERNEL_0;

const nnom_shape_data_t tensor_dense_kernel_0_dim[] = {225, 13};
const nnom_qformat_param_t tensor_dense_kernel_0_dec[] = TENSOR_DENSE_KERNEL_0_DEC_BITS;
const nnom_qformat_param_t tensor_dense_kernel_0_offset[] = {0};
const nnom_tensor_t tensor_dense_kernel_0 = {
    .p_data = (void*)tensor_dense_kernel_0_data,
    .dim = (nnom_shape_data_t*)tensor_dense_kernel_0_dim,
    .q_dec = (nnom_qformat_param_t*)tensor_dense_kernel_0_dec,
    .q_offset = (nnom_qformat_param_t*)tensor_dense_kernel_0_offset,
    .qtype = NNOM_QTYPE_PER_TENSOR,
    .num_dim = 2,
    .bitwidth = 8
};
const int8_t tensor_dense_bias_0_data[] = TENSOR_DENSE_BIAS_0;

const nnom_shape_data_t tensor_dense_bias_0_dim[] = {13};
const nnom_qformat_param_t tensor_dense_bias_0_dec[] = TENSOR_DENSE_BIAS_0_DEC_BITS;
const nnom_qformat_param_t tensor_dense_bias_0_offset[] = {0};
const nnom_tensor_t tensor_dense_bias_0 = {
    .p_data = (void*)tensor_dense_bias_0_data,
    .dim = (nnom_shape_data_t*)tensor_dense_bias_0_dim,
    .q_dec = (nnom_qformat_param_t*)tensor_dense_bias_0_dec,
    .q_offset = (nnom_qformat_param_t*)tensor_dense_bias_0_offset,
    .qtype = NNOM_QTYPE_PER_TENSOR,
    .num_dim = 1,
    .bitwidth = 8
};

const nnom_qformat_param_t dense_output_shift[] = DENSE_OUTPUT_RSHIFT;
const nnom_qformat_param_t dense_bias_shift[] = DENSE_BIAS_LSHIFT;
const nnom_dense_config_t dense_config = {
    .super = {.name = "dense"},
    .qtype = NNOM_QTYPE_PER_TENSOR,
    .weight = (nnom_tensor_t*)&tensor_dense_kernel_0,
    .bias = (nnom_tensor_t*)&tensor_dense_bias_0,
    .output_shift = (nnom_qformat_param_t *)&dense_output_shift,
    .bias_shift = (nnom_qformat_param_t *)&dense_bias_shift
};

const nnom_softmax_config_t softmax_config = {
    .super = {.name = "softmax"}
};
static int8_t nnom_output_data[13] = {0};

const nnom_shape_data_t tensor_output0_dim[] = {13};
const nnom_qformat_param_t tensor_output0_dec[] = {SOFTMAX_OUTPUT_DEC};
const nnom_qformat_param_t tensor_output0_offset[] = {0};
const nnom_tensor_t tensor_output0 = {
    .p_data = (void*)nnom_output_data,
    .dim = (nnom_shape_data_t*)tensor_output0_dim,
    .q_dec = (nnom_qformat_param_t*)tensor_output0_dec,
    .q_offset = (nnom_qformat_param_t*)tensor_output0_offset,
    .qtype = NNOM_QTYPE_PER_TENSOR,
    .num_dim = 1,
    .bitwidth = 8
};

const nnom_io_config_t output0_config = {
    .super = {.name = "output0"},
    .tensor = (nnom_tensor_t*)&tensor_output0
};
/* model version */
#define NNOM_MODEL_VERSION (10000*0 + 100*4 + 3)

/* nnom model */
static nnom_model_t* nnom_model_create(void)
{
	static nnom_model_t model;
	nnom_layer_t* layer[10];

	check_model_version(NNOM_MODEL_VERSION);
	new_model(&model);

	layer[0] = input_s(&input_1_config);
	layer[1] = model.hook(conv2d_s(&conv2d_config), layer[0]);
	layer[2] = model.active(act_leaky_relu(0.300000f), layer[1]);
	layer[3] = model.hook(conv2d_s(&conv2d_1_config), layer[2]);
	layer[4] = model.active(act_leaky_relu(0.300000f), layer[3]);
	layer[5] = model.hook(avgpool_s(&average_pooling2d_config), layer[4]);
	layer[6] = model.hook(flatten_s(&flatten_config), layer[5]);
	layer[7] = model.hook(dense_s(&dense_config), layer[6]);
	layer[8] = model.hook(softmax_s(&softmax_config), layer[7]);
	layer[9] = model.hook(output_s(&output0_config), layer[8]);
	model_compile(&model, layer[0], layer[9]);
	return &model;
}
